
//<![CDATA[

// a few things don't have var in front of them - they update already existing variables the game needs
lanesSide =1;
patchesAhead = 10;
patchesBehind = 5;
trainIterations = 10000;

var num_inputs = (lanesSide * 2 + 1) * (patchesAhead + patchesBehind);
var num_actions = 5;
var temporal_window = 3;
var network_size = num_inputs * temporal_window + num_actions * temporal_window + num_inputs;

var layer_defs = [];
layer_defs.push({
    type: 'input',
    out_sx: 1,
    out_sy: 1,
    out_depth: network_size
});
layer_defs.push({
    type: 'fc',
    num_neurons: 10,
    activation: 'relu'
});
layer_defs.push({
    type: 'regression',
    num_neurons: num_actions
});

var tdtrainer_options = {
    learning_rate: 0.001,
    momentum: 0.0,
    batch_size: 64,
    l2_decay: 0.01
};

var opt = {};
opt.temporal_window = temporal_window;
opt.experience_size = 3000;
opt.start_learn_threshold = 500;
opt.gamma = 0.7;
opt.learning_steps_total = 10000;
opt.learning_steps_burnin = 1000;
opt.epsilon_min = 0.0;
opt.epsilon_test_time = 0.0;
opt.layer_defs = layer_defs;
opt.tdtrainer_options = tdtrainer_options;

brain = new deepqlearn.Brain(num_inputs, num_actions, opt);

learn = function (state, lastReward) {
    brain.backward(lastReward);
    var action = brain.forward(state);

    draw_net();
    draw_stats();

    return action;
}

//]]>
    
/*###########*/
if (brain) {
brain.value_net.fromJSON({"layers":[{"out_depth":195,"out_sx":1,"out_sy":1,"layer_type":"input"},{"out_depth":10,"out_sx":1,"out_sy":1,"layer_type":"fc","num_inputs":195,"l1_decay_mul":0,"l2_decay_mul":1,"filters":[{"sx":1,"sy":1,"depth":195,"w":{"0":0.04737498979595635,"1":0.05594962714322373,"2":0.014487878193145608,"3":-0.046865545902256514,"4":0.13383266240976277,"5":-0.05450135410149828,"6":0.10643314379180559,"7":0.07631854771306246,"8":0.07396792098269313,"9":0.022774101342954354,"10":0.10336091520361354,"11":0.034441566262675846,"12":0.056425342978083694,"13":-0.16771936238051174,"14":0.041838160672574315,"15":0.08714516368307013,"16":-0.03938043295797306,"17":-0.10096922409169827,"18":0.07689727376347241,"19":-0.08678584737868587,"20":0.09797910006951578,"21":-0.08161904167687985,"22":0.10411777311116141,"23":0.04473818754794598,"24":-0.06084375058851648,"25":0.06299446977617564,"26":0.0003248585415983347,"27":-0.0838029368845509,"28":0.05678395702018411,"29":0.06333551084182791,"30":-0.04835843502380597,"31":0.20086485477344582,"32":-0.040427202463701205,"33":0.012734973646918023,"34":0.3070263132765376,"35":-0.0003399911206604893,"36":0.06666411676012624,"37":0.2562456499470974,"38":0.06346753761431284,"39":0.005483627112518964,"40":0.2684747073676849,"41":-0.04965801567471759,"42":0.053552994489261416,"43":-0.01583774716935209,"44":-0.05351936598531821,"45":0.0832564226781878,"46":0.03431328506658785,"47":0.006539523162623218,"48":0.07713733875921658,"49":-0.019418193696640548,"50":0.05587483383859677,"51":0.00022919906877386169,"52":0.003119859560598261,"53":0.02970735825589102,"54":0.014954367943378108,"55":0.020003377180718367,"56":0.02050282336900477,"57":-0.09009085933983768,"58":-0.0906279981322464,"59":0.03837435526988074,"60":0.042961739796986406,"61":-0.08967606495794951,"62":0.04473485373775242,"63":0.07479855335787453,"64":-0.04178881232843566,"65":0.020206282503196903,"66":-0.009808207516509928,"67":-0.10075936703718448,"68":-0.09741192968331167,"69":0.01351866277322375,"70":0.081810482959722,"71":-0.08312156603556715,"72":-0.011288550202408792,"73":-0.11257012832430517,"74":0.12232162671595748,"75":-0.026502498913031757,"76":0.11284998938526968,"77":0.1239961263734636,"78":0.06710730938378806,"79":0.07639758118068071,"80":0.10491509108777179,"81":0.03967572396366811,"82":-0.09781308823473578,"83":-0.029425433277880626,"84":0.04015912094242617,"85":-0.04116253185378677,"86":-0.043061883607527524,"87":-0.057269877385412775,"88":0.03996709543140655,"89":0.12564319271071675,"90":-0.00041738947797755055,"91":-0.009750330901073344,"92":-0.03728571709256217,"93":-0.007581855463016648,"94":-0.02237130500215924,"95":-0.040194264881106286,"96":-0.019239929845007886,"97":-0.01305169380558281,"98":0.044335597646588516,"99":0.06445495892473446,"100":0.14704868968010756,"101":0.030247150354678086,"102":-0.05368782525930174,"103":0.04210346223428096,"104":0.09559756264657661,"105":0.04955028622328365,"106":-0.04624357799850723,"107":0.02673369826832594,"108":0.04119865311461076,"109":0.03710230895506585,"110":0.06862736798697143,"111":-0.09919170531520914,"112":0.06462266257899477,"113":-0.04440884298450884,"114":-0.09918268672564291,"115":0.033143309262612046,"116":-0.003977147120329173,"117":0.03367991450998582,"118":-0.1612149934750245,"119":-0.06455221709258889,"120":0.032899897414138346,"121":0.08695105321976583,"122":-0.0164044443155956,"123":0.03228285356445443,"124":0.06838189532395113,"125":-0.07807682955842322,"126":0.08068505318071763,"127":0.06683699479631282,"128":0.03692491098970586,"129":-0.05899249308997174,"130":0.10078927651961901,"131":-0.04950012090560487,"132":0.08703024929934132,"133":-0.01309898449691481,"134":0.059063508137068836,"135":-0.014820008699645594,"136":-0.006762211800106687,"137":-0.019081713336334453,"138":0.011401005484949388,"139":0.0740178165036444,"140":0.038371921389019584,"141":0.03342726038518567,"142":0.02120313827056377,"143":0.04943995375208474,"144":0.03318249552011744,"145":-0.05756146958768563,"146":-0.02781357324344567,"147":0.060353928194570465,"148":-0.00506751891906894,"149":0.007675866456089749,"150":0.027144861103104583,"151":-0.08076052083902015,"152":-0.00485832170032572,"153":0.07872903070896141,"154":-0.08646540020154746,"155":0.030743545231234504,"156":-0.12273918208707256,"157":-0.08483620791025831,"158":-0.15819672908974694,"159":-0.027199854842611663,"160":-0.004365446910339664,"161":-0.1652368841672375,"162":0.004353085854730434,"163":0.05584504916334932,"164":-0.015134555924047477,"165":-0.0718300625066624,"166":-0.061210272957596255,"167":0.01612916981872694,"168":0.05616969431176291,"169":0.05057068259396177,"170":0.004560979749287809,"171":-0.044440313030570174,"172":-0.01019302866983475,"173":0.06577386788848738,"174":-0.07893676252520719,"175":0.09606569770669486,"176":0.01583320243918687,"177":0.013382505051100824,"178":0.07456330749346378,"179":0.06498013931213704,"180":0.06784089443956964,"181":-0.07945982821973621,"182":0.11885008147722614,"183":-0.06968470537064403,"184":-0.10259326082130461,"185":-0.007393362351764562,"186":0.009578891639548351,"187":0.04295041818337728,"188":-0.07302847067596718,"189":0.024072921116865327,"190":-0.02759218059851793,"191":-0.0440399596537698,"192":-0.04106945569276874,"193":-0.041668922154694574,"194":-0.04311183207079105}},{"sx":1,"sy":1,"depth":195,"w":{"0":-0.05669414193031945,"1":0.05850501190021255,"2":0.12387901495418248,"3":-0.011362199642936749,"4":0.019721075687794114,"5":-0.012087597909372987,"6":-0.11503297358570792,"7":0.03638773719891109,"8":-0.002715523766375346,"9":-0.051884527592888835,"10":-0.09538965412693452,"11":0.10891805276854609,"12":0.03994284803350125,"13":-0.17218233932286567,"14":0.025601394469652216,"15":-0.01531802903966845,"16":-0.007344163284123387,"17":-0.024470789590838142,"18":0.021800393057963604,"19":-0.09784755129842654,"20":-0.017589840131494932,"21":-0.09599241298313489,"22":-0.07175309903980476,"23":0.05105152332054745,"24":-0.010057354972723764,"25":-0.05495038678232795,"26":0.02623216726089859,"27":0.08100368541344005,"28":-0.00005101227750875747,"29":0.0034760352902555277,"30":0.06555083265354131,"31":0.0826677350302729,"32":-0.06654772300233688,"33":-0.08927191089585504,"34":0.061672874359888386,"35":-0.06908656844176204,"36":-0.01441621660162943,"37":0.016263678831777026,"38":0.08489046721569374,"39":0.050971829909318575,"40":0.04353584118813257,"41":0.031949490159664584,"42":0.05208527652587916,"43":0.09149393336057508,"44":0.01451154386774857,"45":0.06249728953828738,"46":-0.20333831104106503,"47":-0.016150161330320875,"48":-0.0025975349657547803,"49":-0.006244539357591594,"50":0.0345835300495553,"51":0.04640870869139981,"52":-0.039838846794262125,"53":0.05637837429871518,"54":-0.04245543234857173,"55":-0.03009582364654855,"56":-0.03205454589484998,"57":0.005044562737312668,"58":-0.08579601309374722,"59":-0.0027094099860778898,"60":0.0050266185545107,"61":0.02785195085171353,"62":-0.134601391076194,"63":0.04239644744185367,"64":-0.10952048461684584,"65":-0.18597376122030054,"66":0.0781016737262889,"67":-0.08728253158212589,"68":0.11086711338430516,"69":-0.04844316729506742,"70":0.030853458010197333,"71":0.04617235980378127,"72":0.010730957635279493,"73":0.05975753347582334,"74":-0.12026994619533525,"75":-0.05351495442784329,"76":-0.0030422832806522235,"77":-0.029511173498423898,"78":0.10043423184245531,"79":0.023604625404451726,"80":-0.0044657759817676775,"81":-0.06813091201666124,"82":0.18931030222428394,"83":-0.07368251589255999,"84":-0.049452114719982974,"85":0.0979031117648355,"86":-0.024407601424071352,"87":0.09014646938689626,"88":-0.014705158440165194,"89":0.060700943637903765,"90":0.05164744976042723,"91":0.05832886200245231,"92":-0.09872104775505473,"93":0.04024242393410517,"94":0.06817361057448908,"95":-0.05489232173252577,"96":-0.015199703855341449,"97":-0.08240534316082722,"98":-0.016318046948176745,"99":0.03700284712170734,"100":-0.019607045958598746,"101":0.03992068591068398,"102":-0.06404033869526975,"103":0.014422440452522755,"104":0.13202962073766142,"105":-0.1297122374345847,"106":-0.07872049284576005,"107":0.014307004790788736,"108":-0.10728129767198641,"109":-0.05277624760593691,"110":-0.025557065822842895,"111":-0.2545691691832988,"112":0.020845076312380414,"113":-0.16643046963197516,"114":-0.0132475725014806,"115":-0.02008596709870234,"116":-0.0761291082451582,"117":-0.16809787603334908,"118":-0.17871555113940046,"119":0.07082032916926016,"120":0.07458410873694234,"121":-0.00017273997778462192,"122":0.0010772726948925309,"123":0.05003155125523187,"124":-0.03950700562621917,"125":0.06246238396576643,"126":0.03296553414409607,"127":0.029236665700115856,"128":0.11811739111200291,"129":-0.04995273501710817,"130":-0.045062153535957675,"131":-0.09997382846352658,"132":0.08663753163573265,"133":-0.09439766883092147,"134":-0.006577711627395055,"135":0.04948194435353905,"136":0.0027814249019939862,"137":0.055055041743098894,"138":0.13261083716643624,"139":0.03338447538413525,"140":-0.04813873452265214,"141":-0.06352432168605661,"142":-0.054341083778003445,"143":-0.05925839521879563,"144":-0.052006890369308535,"145":-0.0222248193410131,"146":0.03653056469360433,"147":-0.06546051670389315,"148":0.0332669726045891,"149":0.015732022573947922,"150":0.04245126293216893,"151":0.03729952749691654,"152":-0.003178982387286846,"153":-0.05824255246337277,"154":-0.11945993470080045,"155":-0.02372424830743495,"156":0.04230584310655655,"157":-0.05040728686666126,"158":-0.0661136720352049,"159":-0.06686104825817785,"160":0.0834908732557105,"161":-0.0416783411387957,"162":-0.0023367616414513917,"163":0.008397381902160501,"164":-0.23351603893734812,"165":-0.12662873579501452,"166":0.06773961223568593,"167":0.0030138669627195677,"168":0.07941787477701172,"169":-0.12998254929013608,"170":0.05527472903584839,"171":-0.03797386356738515,"172":0.041553978383348546,"173":0.018209872463769435,"174":0.04059125488964403,"175":-0.12584102806868386,"176":0.14826518366574948,"177":-0.02982402166925667,"178":0.08859372120444095,"179":-0.02018213953097928,"180":0.10636842256338691,"181":0.00727063045171801,"182":0.1640176872646765,"183":0.0018115223987379431,"184":0.030405408043830965,"185":0.001434181305442163,"186":0.041483792262130934,"187":0.13072103309415667,"188":-0.06739760208873684,"189":0.06300107408372228,"190":0.011032164587368104,"191":0.011287661276403783,"192":0.0007358387150634284,"193":0.012924958672547823,"194":0.024340968978091147}},{"sx":1,"sy":1,"depth":195,"w":{"0":-0.062190183854185316,"1":0.04742008775755843,"2":0.0461665554479629,"3":0.025705789369407473,"4":0.00774868088174821,"5":-0.10566732049373435,"6":0.05966820836632586,"7":0.1232638956209827,"8":0.058412006732075396,"9":0.0654749788066487,"10":-0.05515970909101492,"11":-0.030789168429405118,"12":0.030096162856721485,"13":-0.004452485494917628,"14":0.014935553344718572,"15":-0.0004705318767690498,"16":0.0667557698737448,"17":0.016586890974685548,"18":0.04575591925232161,"19":-0.025498301443270255,"20":0.0006725063006860305,"21":0.1901202752495641,"22":-0.014739763001557089,"23":-0.0409646310590904,"24":-0.06984485007041025,"25":0.017888570700838703,"26":-0.08144648441188299,"27":-0.05798509460433102,"28":0.08443909474900058,"29":-0.015938256670815203,"30":0.01793494685711056,"31":-0.06504384540966868,"32":-0.040886957745218555,"33":0.06407027583885785,"34":-0.010058108370496257,"35":-0.10000809279229635,"36":-0.055498369187698404,"37":-0.05177011826339401,"38":0.11604523357313956,"39":0.08842124176742056,"40":-0.02510902494017039,"41":-0.005877325197416342,"42":0.10055631662609507,"43":-0.01693692559306304,"44":-0.12375835242864013,"45":-0.03929543514587706,"46":0.058128248754418944,"47":0.0668435256363861,"48":-0.01867353561021899,"49":-0.12355527165799099,"50":-0.033371856829459104,"51":-0.13185490819994178,"52":-0.06175200963592373,"53":0.020758589893329578,"54":-0.09207052820489682,"55":0.04147406159361806,"56":-0.08520141411716153,"57":0.19787173622217255,"58":-0.07202601837156566,"59":0.18402178814011624,"60":-0.0924410721120762,"61":-0.04100622900770245,"62":-0.08549129213265187,"63":-0.04745864078113712,"64":-0.02725970429455616,"65":-0.001814035839761581,"66":-0.006697794735756368,"67":0.03495862049211766,"68":0.001658646867714114,"69":0.036106131347292875,"70":0.07880029246628753,"71":0.0029008623222657784,"72":0.012448463535942861,"73":0.011854852680261693,"74":0.061885420260910436,"75":0.13255367954322314,"76":-0.07105160001601551,"77":0.1316269194017584,"78":0.07155901745759163,"79":-0.08098866374225848,"80":0.029495444183955118,"81":0.12810318561049536,"82":0.009540201806607918,"83":0.04363820600779316,"84":0.0724467205710911,"85":0.08455215050034758,"86":-0.020172483938136948,"87":-0.05843017114899438,"88":-0.2728500744378305,"89":-0.06352810192563846,"90":-0.09484180860909394,"91":-0.015519439045682025,"92":-0.142804871345104,"93":-0.05702226959038566,"94":-0.07589645337434087,"95":0.009863895602973375,"96":0.04140552926688115,"97":-0.14094245671461472,"98":0.061371720545472006,"99":0.010059051962838298,"100":-0.20262193828143804,"101":0.1588573522809652,"102":-0.22609025331814372,"103":0.011222191535008726,"104":-0.04580379850996826,"105":-0.12405781508732103,"106":0.024670540834339286,"107":-0.040133636106168685,"108":0.029258170514013915,"109":0.015599501148434503,"110":0.11783587696460007,"111":0.13685777901510607,"112":0.013708532888096547,"113":-0.1295567524426416,"114":0.004286428002372527,"115":0.06949614814073292,"116":0.07112510740704776,"117":0.09616585907548128,"118":0.025504759309423027,"119":-0.11553536941064925,"120":0.006930513327960543,"121":-0.022549842336239353,"122":-0.05138655148664488,"123":0.03956295205886768,"124":-0.07044158292366842,"125":-0.07735259003675207,"126":0.005899949290621985,"127":-0.09287819347215026,"128":-0.006031496255039652,"129":0.008972739328536787,"130":0.06796897145573792,"131":0.04964158920269384,"132":-0.016790148090252716,"133":0.06479044587518654,"134":0.0786276545872667,"135":0.09193714205798276,"136":0.007909663949624546,"137":0.04309910813679744,"138":-0.0824124454120172,"139":-0.01113003363110915,"140":-0.04902580656677053,"141":-0.0031702705547305395,"142":0.04067832916347241,"143":-0.02286305407823269,"144":-0.018339234302196195,"145":0.018479121938407898,"146":-0.019121001919910865,"147":-0.020705388557296773,"148":0.10932845777904876,"149":0.0374571881091468,"150":-0.06345064248230801,"151":-0.12197049531975102,"152":0.10087980130411138,"153":-0.002789119292400101,"154":-0.025896089825347388,"155":0.014974243700949155,"156":0.016828792663322593,"157":-0.0473774682898199,"158":0.002641707321032678,"159":-0.15682006397052423,"160":-0.12121382731398495,"161":0.09586599275804543,"162":0.10857788215783981,"163":-0.032234589904665295,"164":0.03322243296432031,"165":-0.059650974288999084,"166":-0.0008928705768794032,"167":-0.08988594355595925,"168":0.0709366925375493,"169":-0.05416348198793943,"170":-0.13210220859889724,"171":0.02176802755281779,"172":0.07525951458429116,"173":-0.035210527273050095,"174":0.002978764358124881,"175":-0.07790560147336803,"176":-0.03990499578293063,"177":0.10780320293503526,"178":-0.07359865880056007,"179":0.0784979102860549,"180":0.008991823831494612,"181":-0.05356507753454835,"182":0.12309031204095408,"183":0.048347395696396865,"184":-0.07987173102328735,"185":-0.07103577226895853,"186":0.06480593441711767,"187":-0.01181745543071506,"188":-0.0648762957687787,"189":0.02714939811928478,"190":-0.030894675120782505,"191":0.01885455376570386,"192":-0.014433264328999199,"193":-0.01462387937911359,"194":0.02905218391509461}},{"sx":1,"sy":1,"depth":195,"w":{"0":-0.10303970711445481,"1":0.11442098428622326,"2":-0.05853573406893032,"3":-0.11273305242814745,"4":-0.13359610065457228,"5":-0.024244910716646084,"6":-0.0006044569126512891,"7":0.05139663635409494,"8":-0.035316695808413505,"9":-0.04169384634518401,"10":0.005521135003177223,"11":0.11905237138285057,"12":0.06505572313072162,"13":-0.07457177124235663,"14":-0.019433446717390536,"15":0.028692462572175784,"16":0.04931863164909838,"17":-0.026990917334322122,"18":-0.03479019995259352,"19":-0.03547966970124046,"20":-0.07208481944825645,"21":0.04735277503544755,"22":0.06414665454477908,"23":-0.0558590172455844,"24":-0.11314886590054915,"25":-0.037335195364899786,"26":0.11625807060957545,"27":0.08111457527640223,"28":0.0054809963072798,"29":0.11380888528210802,"30":-0.009535294735459497,"31":-0.0220486171104603,"32":0.0037008517519156155,"33":-0.07563424334832483,"34":-0.046482621032387025,"35":0.05125539426875584,"36":0.032127831658063814,"37":0.0022722016848731683,"38":-0.028403293981263834,"39":-0.09377371765779309,"40":-0.10027099214381018,"41":-0.0437213298102311,"42":-0.07375509492538751,"43":-0.04879629368815867,"44":-0.011122332495186736,"45":-0.09434816194623745,"46":-0.008027242313664775,"47":0.04915262592376592,"48":-0.022325192787556257,"49":0.03725076276909805,"50":0.040214924790276385,"51":0.1000240985354666,"52":-0.07599355151846728,"53":-0.07842336516957979,"54":-0.012214317506700526,"55":0.18931964540309668,"56":0.03682514621590552,"57":-0.08144606036481468,"58":-0.005925980055105277,"59":-0.14766736983152942,"60":-0.08593406637370476,"61":-0.029901581718259213,"62":-0.056469721754729904,"63":-0.03756622849260938,"64":-0.16940968121166272,"65":0.01063912616420481,"66":-0.020491298604786733,"67":-0.07090531720677619,"68":0.058895833676739826,"69":-0.01654294200793861,"70":-0.07404326077929008,"71":0.0012605881358663683,"72":0.03576070310914959,"73":0.1011516574496678,"74":-0.00399211542328792,"75":0.032786422136544424,"76":0.04825723382854108,"77":0.052000397112480966,"78":-0.002614162466490485,"79":-0.0626100405624221,"80":0.01150935310166423,"81":0.00688974845587701,"82":0.01573112437171318,"83":0.04380826575338076,"84":0.10088104521044346,"85":-0.029844186698498216,"86":0.026411071068030298,"87":0.04084292772412996,"88":0.030445216073203878,"89":-0.025475329555759114,"90":-0.09884854234922262,"91":-0.013420583820479368,"92":-0.049198116957972285,"93":-0.07349527881057742,"94":-0.04658006964603562,"95":-0.02682245587940078,"96":0.040343543524205085,"97":-0.011846558460803012,"98":-0.006065597846256193,"99":0.07026027458829913,"100":-0.06557079422988762,"101":0.20254610558470904,"102":-0.03812992934780492,"103":0.02399754388866088,"104":-0.002303851230008081,"105":-0.032804048927441695,"106":0.01705568052349994,"107":0.017629169195813258,"108":0.014500775035400128,"109":0.0474027098000151,"110":0.014573804254328119,"111":0.03282767923591778,"112":-0.03809812725344532,"113":-0.21369700816818385,"114":0.1445064251451138,"115":0.11060203199814927,"116":0.007847184172021465,"117":-0.028213724607163787,"118":-0.010620077600669516,"119":-0.011013643836206179,"120":0.04936372638683269,"121":-0.0956272596180642,"122":-0.07951693301059333,"123":0.08148950803883515,"124":-0.05267129063470874,"125":0.10559560450001593,"126":-0.029941651458564325,"127":0.038276601111467225,"128":0.010133660316957449,"129":-0.053698081418736957,"130":-0.10051490865016155,"131":0.003853633540992306,"132":-0.025076004835332233,"133":0.0071212115686567976,"134":0.034703741675050415,"135":-0.1440516455829792,"136":-0.014047440851478354,"137":0.023082324190577288,"138":-0.04393361686432634,"139":-0.05701311398591424,"140":-0.020424620698429187,"141":-0.09292197813711629,"142":-0.02322381616466832,"143":0.02765988594273162,"144":-0.04933041416357367,"145":-0.047566648418795675,"146":0.060702157682413375,"147":0.07939805521373854,"148":-0.08973925068424816,"149":-0.004853690202806548,"150":-0.19676617293337012,"151":-0.006742491688830472,"152":0.10448389867124659,"153":0.024791102984953368,"154":0.05068531557527906,"155":-0.04479267047722755,"156":0.0010094505684979417,"157":-0.02048445402705115,"158":-0.02781557903775084,"159":-0.0012808325474984949,"160":-0.02695681740677361,"161":-0.07119671738010144,"162":-0.015862482203804415,"163":0.012722331429790552,"164":-0.019717347272041684,"165":-0.014371902255953436,"166":0.0387738689039589,"167":-0.06383491676192318,"168":-0.025582276000822732,"169":-0.11428005500149528,"170":0.043298046786188184,"171":0.013744371529845149,"172":0.037602322568940166,"173":-0.08667424159463909,"174":0.029601841864490178,"175":0.055297545041920575,"176":-0.08789555299964605,"177":0.005941830584322233,"178":-0.036489311287557995,"179":-0.041065346243034706,"180":0.14541763674380997,"181":-0.04545045376378789,"182":-0.03691134594772591,"183":0.03390087486183077,"184":-0.12736938570857304,"185":0.07435367925143223,"186":0.027232685514139342,"187":-0.024425919292250707,"188":-0.004672072430474398,"189":0.04372556761650661,"190":-0.06336141316265256,"191":-0.010296068836881753,"192":-0.021544232493430637,"193":0.020323690174911146,"194":-0.10162476139673034}},{"sx":1,"sy":1,"depth":195,"w":{"0":0.1307066940139743,"1":0.038468178775519994,"2":0.1364034785373775,"3":0.03480894667417027,"4":-0.11025974494395717,"5":-0.1196806014873467,"6":-0.11775652193189177,"7":-0.11806130035992393,"8":0.043978953857595,"9":0.07796139278992834,"10":0.004965523193861369,"11":0.06953459156762909,"12":-0.0008799822513008529,"13":-0.0481344483086913,"14":-0.056141685622703795,"15":0.09065178585435518,"16":0.036675788187723705,"17":0.015839747593460976,"18":-0.10465697407584121,"19":0.05797183731582404,"20":0.09250910794214245,"21":0.03143583157803846,"22":0.03989664206322788,"23":0.04885460501358096,"24":-0.025563520229682647,"25":-0.03808884158756366,"26":0.008762947083280471,"27":0.02885170383998359,"28":0.14026959655721602,"29":-0.06600868604266523,"30":0.0657774374576838,"31":-0.09014573410361623,"32":-0.10251213892513386,"33":-0.02330592535985239,"34":-0.03023911303966433,"35":-0.09418011650158094,"36":0.15039792896473841,"37":-0.05636079571451438,"38":0.18918465588763808,"39":0.0709691243780704,"40":-0.020126584484380212,"41":-0.021836713112553148,"42":-0.07443947126332087,"43":0.031605547549362,"44":0.2062467758602153,"45":0.027195813257920583,"46":-0.03606701708324011,"47":0.18257327215632801,"48":0.006529242165834497,"49":0.011644942139364742,"50":0.24109921671733267,"51":-0.040968373667023335,"52":0.024602398425126425,"53":0.06324565457631333,"54":-0.03495499507972002,"55":-0.15273800086161393,"56":0.10537240223662782,"57":-0.021336492562943666,"58":0.014146025168705943,"59":0.030215720966904266,"60":-0.09602089779766028,"61":0.017489696748109962,"62":-0.04901815686579604,"63":-0.03681381543516733,"64":-0.0912233073506614,"65":-0.03492029185297987,"66":-0.06655013504979886,"67":-0.0051628600291349774,"68":0.0572387590550454,"69":0.043625876784588034,"70":0.009391521097858232,"71":0.08352449746071906,"72":0.0033105081679455006,"73":0.04999874541530955,"74":0.05245325346164082,"75":0.06343511385539288,"76":0.03582523367433102,"77":-0.03873950355250029,"78":0.11387949404128848,"79":-0.06780052595305379,"80":0.0889617500621394,"81":0.02327108558119077,"82":-0.06755410214522416,"83":-0.03365110779806358,"84":-0.11660342340860891,"85":0.0805914373061469,"86":-0.015231548115373066,"87":0.0852493949868336,"88":-0.1511413975480799,"89":-0.0008551987869987719,"90":0.11083687059196644,"91":0.08255313358042426,"92":0.07184869816844033,"93":0.12893184848953818,"94":0.07590282993238195,"95":0.0814574037468583,"96":0.03767801682106832,"97":0.06887334196961202,"98":0.11461070703321269,"99":0.03969641143325983,"100":0.07285539388451584,"101":0.07257393011801005,"102":-0.008786448323816615,"103":-0.101183696637401,"104":-0.07099258392275924,"105":0.04792661295666516,"106":0.13906491416150474,"107":-0.15120833357232727,"108":0.09930034874987778,"109":0.047727609574508716,"110":-0.01386912686250862,"111":0.059406859461105986,"112":0.01193374405065934,"113":-0.03624143811421875,"114":-0.030704430872589467,"115":0.06443065703533898,"116":-0.12928885160831927,"117":-0.1217821547410463,"118":-0.0743859077810155,"119":-0.16271483905888842,"120":0.017883345281416798,"121":0.03965692500309659,"122":0.0091158299468471,"123":-0.04166268442500947,"124":0.002167119590403785,"125":-0.014080307467705952,"126":0.09787211585923024,"127":0.12179566935023323,"128":0.06834884710030854,"129":-0.051988125848818297,"130":-0.008979043156414757,"131":-0.04948601459229109,"132":-0.0068663046337688795,"133":0.08319785224706612,"134":0.012436217557392576,"135":0.017108512818236915,"136":-0.008658921554949036,"137":-0.057577037652389855,"138":-0.04336020899607493,"139":0.02659300722962983,"140":0.11487769684807715,"141":0.042206730105527925,"142":0.10836348013077152,"143":0.12162161236213329,"144":0.06393552450310011,"145":-0.13066476250120398,"146":0.07797129418592827,"147":-0.13731437259353574,"148":-0.024769870531299337,"149":0.06517367127384208,"150":-0.1111500186589527,"151":0.003449511172633959,"152":-0.0009907977357666124,"153":0.10973438369375399,"154":0.053823019310786244,"155":0.07005148398002818,"156":0.14458231566602814,"157":0.003666602914334857,"158":0.1046351262583151,"159":0.025520080354416025,"160":0.041575641884591286,"161":-0.005128297596209026,"162":-0.10035275459375184,"163":-0.13512179545665812,"164":0.06196176239792137,"165":-0.04087308401946161,"166":-0.01801417857106744,"167":0.09634507588473515,"168":0.03217672839125994,"169":0.03595743771089038,"170":-0.010893512869709009,"171":-0.004068849987135972,"172":-0.048352540792624375,"173":-0.08054540183831711,"174":-0.009462992412731309,"175":0.08813214449242883,"176":-0.02126998206515938,"177":0.13982285367471955,"178":-0.07819693546060447,"179":0.06455859205550422,"180":0.03775197961623389,"181":0.03682907529305568,"182":-0.011370085486669622,"183":0.011552813778280607,"184":0.00022913405512024082,"185":0.05652587254036941,"186":-0.04041701493133863,"187":-0.035041380190544424,"188":-0.0023298065486911206,"189":0.08637170253240375,"190":0.13285886753896642,"191":0.08177021752149438,"192":0.1450819659941588,"193":0.08515122176833985,"194":0.10589123625554982}},{"sx":1,"sy":1,"depth":195,"w":{"0":0.0818891725352966,"1":0.04493602452884667,"2":0.01189767333460789,"3":0.03554762936317791,"4":0.12210441970966736,"5":-0.06824595439670395,"6":0.03751253468352062,"7":0.0010329702959919528,"8":-0.06276143066299879,"9":-0.062074597080869015,"10":-0.019532817515853573,"11":-0.0573285625167776,"12":0.00834823149177302,"13":0.004263196429174482,"14":0.03927859386030522,"15":0.030999012968377416,"16":0.09265672824182089,"17":0.17615033267038135,"18":-0.068159924867294,"19":-0.02578950663064706,"20":0.24230041475143368,"21":-0.0527568168425017,"22":0.07554609310646868,"23":0.02843004954050662,"24":0.004618412396807269,"25":0.05515450558248783,"26":0.04313800943382938,"27":-0.09910078099333615,"28":0.00910516355552087,"29":-0.03827830112293657,"30":0.01712108525634934,"31":-0.033428282194641855,"32":0.03806631068943529,"33":0.03674207206530939,"34":-0.06650929884073235,"35":-0.027434598788647874,"36":-0.06206387156226858,"37":-0.09855951342233245,"38":-0.046676998981013185,"39":-0.062028108386372995,"40":-0.015860784199845167,"41":-0.010666552471374146,"42":0.04691180648973273,"43":-0.0657322613555139,"44":-0.07890059020126497,"45":0.01667137619857558,"46":0.08301754949591292,"47":0.005451590724217915,"48":0.0100081973338677,"49":0.04053623946101511,"50":-0.14041968411204447,"51":0.06638180769837643,"52":0.16387228993064662,"53":0.1743671233604544,"54":0.15367338704352979,"55":-0.131995837392123,"56":-0.04554399662212803,"57":0.03384270780036765,"58":-0.056927678013286846,"59":0.18301972584421872,"60":0.10363844176723722,"61":-0.08572088061219545,"62":-0.14910152588360545,"63":-0.04435372957000741,"64":-0.030593805369133753,"65":-0.0340514715594423,"66":0.01352285632901205,"67":0.04775489093919839,"68":-0.016835901983799913,"69":-0.08327142189612144,"70":0.12145496576001226,"71":-0.0787691510645119,"72":-0.10309434215829669,"73":0.002749688240048038,"74":0.052304808621832316,"75":0.019429824615062777,"76":0.07174881002546799,"77":0.06828240000328753,"78":0.16984379625839977,"79":0.030521628723168995,"80":-0.021317330987659203,"81":-0.11285757423813877,"82":-0.10719964136558596,"83":-0.0241792688877053,"84":0.1579760919232239,"85":-0.14371158174441762,"86":0.007054963035069277,"87":-0.03000819741716481,"88":-0.05189258895854697,"89":-0.13047210808535023,"90":-0.05392080319927214,"91":-0.1136355598321731,"92":-0.04773969897681984,"93":-0.018424437709120643,"94":0.0030165806723602227,"95":-0.005520978807108204,"96":-0.011569014737178696,"97":0.009797362971562909,"98":-0.06149904671505126,"99":-0.028403890654484724,"100":0.02621629569297433,"101":0.16012218367594222,"102":-0.08524142295155389,"103":-0.11835462702973669,"104":0.0024237997924698544,"105":0.029024214287476802,"106":-0.07573004340372017,"107":-0.09895277185132227,"108":-0.001858853307754732,"109":0.13745092958124264,"110":0.04731120686700911,"111":-0.09472397333820037,"112":-0.06185698606295999,"113":-0.011357476837655842,"114":-0.030170357241905883,"115":0.13840978303477477,"116":0.027513234509394417,"117":0.04893762662097438,"118":-0.00030273415955985906,"119":0.12423886018686285,"120":0.010275429720499244,"121":-0.10233857261406107,"122":-0.11503564557181596,"123":0.1292382321321699,"124":0.13600692567800118,"125":-0.04664688382435528,"126":0.020822664333422027,"127":0.12394042108647166,"128":-0.0019831591550632964,"129":0.06743308549637687,"130":0.01597914292114538,"131":0.010833288448855567,"132":0.03514567971653275,"133":-0.07496391715882658,"134":-0.04538511532134969,"135":0.08472007792753684,"136":-0.04072716144807424,"137":-0.003571841074208366,"138":0.009939730998754559,"139":0.028071930566306955,"140":-0.03654760733940881,"141":-0.08095024243766644,"142":-0.06361271969244034,"143":-0.01107942576963609,"144":-0.034163187954131695,"145":-0.017030414293554726,"146":0.009004559986019735,"147":0.028068058901443992,"148":-0.04763743881060412,"149":0.03010685224363551,"150":-0.13368455790680156,"151":0.04416411054436219,"152":-0.06107751555871546,"153":0.04966788262224388,"154":0.05724399205105548,"155":-0.01976260662324558,"156":0.03581738868847302,"157":-0.1090165247386256,"158":0.025654045765194176,"159":-0.03520048119777103,"160":0.08455376923811019,"161":0.0062142081723328664,"162":0.05530187675229966,"163":0.029998171349405356,"164":0.04787731398185528,"165":0.011652591488586692,"166":0.06701744200252907,"167":0.05306497256873671,"168":0.06778088457100799,"169":0.06592493673045814,"170":0.048808130387626714,"171":-0.032605449485540935,"172":-0.005632606004281738,"173":-0.0059836161618276795,"174":-0.024564309564847533,"175":-0.10575178335128109,"176":-0.0008132337182009336,"177":0.015886948401800542,"178":0.1577558754858821,"179":-0.2477395973298686,"180":0.007506246660728938,"181":0.08014903844908264,"182":0.043925656439996415,"183":0.03641077570810616,"184":0.005286141757015674,"185":-0.0749393555951526,"186":0.10831885553553897,"187":-0.07956738814867621,"188":-0.13548093030295785,"189":0.012099089598051673,"190":0.0200134483008368,"191":0.01018071008201621,"192":-0.02568961320015172,"193":-0.0464397047781559,"194":-0.06954217456059253}},{"sx":1,"sy":1,"depth":195,"w":{"0":0.002196884993503423,"1":-0.044852902315256474,"2":0.00807848756828245,"3":-0.03488691690474246,"4":0.04603807011344398,"5":0.033313688194276,"6":-0.03881689503651244,"7":-0.024696054272816435,"8":0.046427407957076096,"9":0.0653263073061481,"10":-0.06348630957021678,"11":-0.007023371248208813,"12":0.06619317259707652,"13":0.0037526099312208236,"14":-0.04405526586173954,"15":-0.03495824602643469,"16":0.04425083268164125,"17":0.06174709158975058,"18":0.014181875626308798,"19":0.17100613665297107,"20":-0.008258754406676921,"21":-0.08978725210958516,"22":0.03453599122594885,"23":0.16321595407899622,"24":-0.036290714799623036,"25":0.07372975579984944,"26":0.05256389212894797,"27":-0.02971986200191849,"28":0.031876098300368735,"29":-0.027692887562922496,"30":0.034577150540590976,"31":-0.06628293051295175,"32":-0.14203551856119653,"33":0.0489795854549388,"34":0.06270554179076579,"35":0.06503519726223557,"36":0.12465873974723363,"37":-0.048092502787232407,"38":0.09391011607986349,"39":0.011455431429824019,"40":-0.08044942910089005,"41":-0.10034327140513478,"42":-0.07169116255623255,"43":-0.02150114874606804,"44":-0.09887061321192223,"45":0.012947020251457634,"46":0.01427459893758292,"47":0.12945675560491857,"48":-0.01065238977112118,"49":-0.040104610936661345,"50":-0.09778262608113422,"51":-0.0509064334803777,"52":0.04995060343532655,"53":-0.06696766570448011,"54":-0.025506217285685345,"55":-0.03365674164040591,"56":0.14943714126105492,"57":-0.11994840666217933,"58":-0.06010915108911942,"59":-0.005596369936968372,"60":-0.06816280322756843,"61":-0.0348128195796009,"62":0.10351952552849848,"63":0.012580964629022683,"64":0.018960063834865655,"65":-0.057348276883221354,"66":0.09115334073297858,"67":-0.029549021244636396,"68":-0.05843058385531224,"69":-0.03076538705889058,"70":-0.03366082890299235,"71":0.10286891230537673,"72":0.08102457883002935,"73":-0.003069893858672427,"74":0.0672265153699805,"75":0.033002463614204496,"76":0.03165651505871189,"77":0.07285643759333867,"78":-0.01565816080148317,"79":-0.05520371708942058,"80":0.03272285123195806,"81":-0.0335259003416709,"82":-0.0712200263154426,"83":-0.09762166880933101,"84":-0.015263864496863743,"85":-0.14489458520263704,"86":0.0160074090295858,"87":-0.017140353956556373,"88":-0.025044279761976027,"89":-0.001974493511418359,"90":-0.00023118820559249928,"91":-0.022427028204100107,"92":-0.10846933918595628,"93":-0.02701679202363999,"94":-0.052753105788647676,"95":0.06256678074292535,"96":-0.03623862306381125,"97":-0.1699058630739657,"98":-0.13366291307411993,"99":-0.041742240836546846,"100":-0.06149614922659728,"101":0.01327220014345546,"102":0.08969716676706221,"103":-0.10581138270505178,"104":-0.07791780773476885,"105":0.01727777579442019,"106":0.0031722371122523464,"107":-0.009613660925458706,"108":0.02866770392359239,"109":-0.04820053027664217,"110":-0.04239633626027257,"111":0.05413900552403033,"112":-0.07823142130829358,"113":-0.010283253928136471,"114":-0.057946951698328246,"115":0.13887610963796757,"116":-0.051943071873540324,"117":0.14209516492280003,"118":-0.02128022563366555,"119":0.06123286523525572,"120":-0.023394053182292877,"121":0.04701867987320248,"122":0.07063723530214244,"123":0.04831067379765301,"124":0.016568504551088478,"125":0.07016963109073977,"126":0.10530836686926762,"127":0.1306598930579777,"128":0.14856013154104245,"129":0.020211952129531537,"130":-0.08765981099848479,"131":-0.007127402701166413,"132":-0.09848224763457447,"133":0.11393251987209252,"134":0.0323212626056278,"135":0.09848694016243997,"136":-0.06217217659748861,"137":-0.04889208979625215,"138":0.0815572724947004,"139":-0.01792722476512023,"140":-0.03533731716830588,"141":-0.025233615213418187,"142":-0.05238315688313548,"143":-0.08094375246495522,"144":-0.047162590996102274,"145":0.12399971273562627,"146":0.03655427686660734,"147":-0.03237126939543181,"148":-0.08552151709216269,"149":0.023173007716670614,"150":0.016538066182613866,"151":-0.0602251121773342,"152":-0.07821952966265418,"153":-0.014256269519314026,"154":0.05085583677757102,"155":-0.051786363590391626,"156":-0.07761710492977959,"157":0.03741403928348583,"158":0.007518031932147784,"159":-0.008540098608697443,"160":0.0590198413830346,"161":-0.016922368188458443,"162":0.09783583143749024,"163":0.04705282829206315,"164":-0.06435382550055778,"165":0.09152806956200549,"166":0.06924539568824802,"167":0.028335041765611354,"168":-0.03043593391896868,"169":0.10562120131478435,"170":-0.04555615018933181,"171":-0.08681558394903309,"172":0.09906740980596616,"173":-0.04631063999577498,"174":-0.008026040654399366,"175":0.0286548821069612,"176":0.07775418827808656,"177":0.022270001455496256,"178":-0.06887857143638346,"179":-0.0845552195745307,"180":-0.03624015292286283,"181":-0.02928294072044727,"182":0.004110256951866529,"183":-0.08971715877084571,"184":-0.11529941134171666,"185":0.02120948532109348,"186":-0.07709439592686258,"187":-0.03164103224036467,"188":-0.012641235489855575,"189":0.07339746132347873,"190":-0.025544967263744278,"191":0.002391418157507954,"192":-0.010153878187518098,"193":0.024326539745054738,"194":-0.05751373532235168}},{"sx":1,"sy":1,"depth":195,"w":{"0":0.029250887320891813,"1":0.011795312165746644,"2":0.0013830583709919459,"3":-0.0436734342447934,"4":-0.014449940141041485,"5":-0.08014137987398114,"6":-0.04839743674666573,"7":0.05315472981466471,"8":0.0034307242092701715,"9":-0.005442328855885202,"10":0.06873369976243081,"11":-0.021788663354752373,"12":0.023345192968895267,"13":-0.04219301200190708,"14":0.13870882286357816,"15":0.08076833999002196,"16":0.049803153690304844,"17":-0.007958117316023947,"18":-0.08337285171516272,"19":0.14247213735661057,"20":-0.007910558755919433,"21":-0.11116435699082507,"22":0.001067581183298514,"23":0.1000431866108421,"24":-0.045413215418459794,"25":-0.08799874178137326,"26":-0.07300692219145062,"27":0.007439337489924795,"28":-0.031043761960964165,"29":0.06722403664395703,"30":-0.021133397089218294,"31":-0.04295038382328441,"32":-0.06305376847064767,"33":0.03917420217605659,"34":0.004085057919520689,"35":-0.04228861596389109,"36":0.0671205312482551,"37":-0.08689231245730317,"38":-0.03158173142505654,"39":-0.08931859896668118,"40":-0.021353882912243764,"41":-0.033362186640861366,"42":-0.0031126741287399204,"43":0.04645494852639715,"44":0.08582930837773,"45":0.047041169442094,"46":0.013347152713602478,"47":-0.06634270462542612,"48":0.030193326293997288,"49":0.0014302748999467578,"50":-0.10916651424927361,"51":0.007897099424650646,"52":-0.07236367808043785,"53":-0.07196926048078475,"54":-0.07274456915562043,"55":-0.009340780563274842,"56":0.02717399136260936,"57":-0.06107159624953188,"58":0.08248897827872474,"59":-0.005432543432881432,"60":0.0317744763204477,"61":-0.07145619235379666,"62":-0.005671954545239168,"63":-0.0841589007803841,"64":-0.02741357172401277,"65":0.004635264008533155,"66":-0.025850684708746217,"67":-0.04697799548061436,"68":-0.033908276970772845,"69":0.01652724837940127,"70":0.11250821370550088,"71":0.08997332232649764,"72":-0.08309348521377238,"73":-0.055408070200701,"74":-0.00839355062078806,"75":-0.1498673719310081,"76":-0.07104114658580987,"77":-0.03651221506698894,"78":0.03380708563353154,"79":0.04232023825098177,"80":-0.08635920634631455,"81":0.01160257958293423,"82":0.07406464593806343,"83":0.046828930992802546,"84":0.0369219098815286,"85":0.03334272184157917,"86":0.039416402452132474,"87":-0.14795286031485855,"88":0.1581949258591136,"89":0.024747722625320392,"90":0.04284425470706187,"91":-0.1099314326454332,"92":0.0159833732490147,"93":-0.07200282414090622,"94":0.027555156623538583,"95":-0.040091751532837325,"96":0.017329398999197648,"97":-0.009151187145825784,"98":-0.015887823039853192,"99":0.03828827305083773,"100":-0.13310535188253514,"101":0.05213508446112964,"102":-0.041836428791571616,"103":0.026550762399154694,"104":-0.00037343012199244984,"105":0.003002084529236773,"106":-0.042665523786722524,"107":-0.008117092531194083,"108":0.07755734473136282,"109":-0.09888572940553567,"110":-0.0510765131024395,"111":0.017407887210778804,"112":-0.1202590175791302,"113":0.18846061330386588,"114":0.025893162366643185,"115":0.04648119543616977,"116":0.10379451021201827,"117":0.007456203512558463,"118":0.012674413728623289,"119":-0.12439373956796682,"120":-0.02705251631742679,"121":0.04674778741070508,"122":-0.1478011522891824,"123":0.15838770629900248,"124":0.06814338127951698,"125":0.008669835183490317,"126":-0.11403589054322077,"127":0.014605832938342523,"128":-0.08054414403924684,"129":-0.021408872478887953,"130":0.03677077886475026,"131":-0.06840484058408867,"132":-0.08888348564528206,"133":-0.08326657572442796,"134":0.07739476987295638,"135":-0.023481026700903265,"136":0.00110382388177893,"137":0.03154432371323242,"138":0.049343021397864895,"139":-0.201977301140574,"140":-0.027176289126275663,"141":-0.039670358546749454,"142":-0.0632443748025002,"143":-0.010704575296031053,"144":-0.002295569815484823,"145":-0.15393390618945005,"146":-0.0001729388214053364,"147":-0.07147446842970379,"148":0.17760598852666884,"149":0.019798347895420256,"150":-0.11525715278692922,"151":-0.020494930621110515,"152":-0.047676043586164306,"153":-0.03330497876636308,"154":-0.07077305094064583,"155":0.12252242277467444,"156":0.02171093318374529,"157":0.026894549747537144,"158":-0.07468310032886258,"159":-0.0011771463535254019,"160":-0.03948257289864415,"161":-0.047302607226399424,"162":-0.10170914574760238,"163":0.05024144201673275,"164":0.10257190636692454,"165":-0.028510023094796284,"166":-0.050292392708311026,"167":-0.03806355179694934,"168":0.012458231919203207,"169":-0.11548893005480981,"170":-0.03686459165361033,"171":0.018932950107710164,"172":0.054503459752681956,"173":0.05708253574254176,"174":0.07325830943555801,"175":0.034505777370348836,"176":0.11119522444911453,"177":-0.14384517878300215,"178":-0.1386714247338468,"179":0.002453990010215131,"180":-0.07279083374000599,"181":0.12240594628081897,"182":-0.008133085143250361,"183":0.1052250497724361,"184":-0.010576389198688882,"185":-0.1451650283239471,"186":-0.01255200148009747,"187":0.061628795507618274,"188":0.05304194162242386,"189":-0.02312031277086543,"190":-0.006173569800383016,"191":-0.012907966297762977,"192":-0.003880969747321418,"193":-0.05557724492856814,"194":-0.01420767120838513}},{"sx":1,"sy":1,"depth":195,"w":{"0":-0.005264060172431587,"1":0.03628191509279996,"2":-0.0007913911441292147,"3":0.015693724856696616,"4":-0.11492685469239448,"5":0.05697961253514308,"6":0.08086210295239184,"7":0.18414925928674225,"8":0.03993301868239682,"9":0.13847768808301894,"10":0.12037404534648949,"11":-0.05802558861816287,"12":-0.045076105896817834,"13":0.1971776957643634,"14":-0.04605588064483882,"15":0.025923498807178855,"16":0.09956671473473147,"17":-0.01778947426383504,"18":0.03519255713077763,"19":0.16377095325843025,"20":0.07829281791276578,"21":-0.02957124512228423,"22":0.0973450973779852,"23":-0.011412250168131757,"24":0.12552864363575578,"25":0.10094559034480947,"26":0.02606673388220711,"27":-0.02050605768109951,"28":0.0447062669342776,"29":0.06465208276741112,"30":-0.0731337759645703,"31":0.4435846456662326,"32":-0.01173186761358693,"33":0.05196118103030402,"34":0.49830829955374734,"35":-0.09905929411741324,"36":-0.018782512361726775,"37":0.3443737539076939,"38":0.06168685303666133,"39":0.09484557997503343,"40":0.2942223412583406,"41":0.027400593264432848,"42":0.08236369446882558,"43":0.01817531301482845,"44":-0.06568484897149598,"45":0.1126931605797876,"46":0.04414244812568834,"47":-0.02204884667780129,"48":-0.05495856927391892,"49":0.13094694202747875,"50":-0.019148644554934754,"51":0.020112449016985008,"52":0.11722416427299592,"53":-0.01688359339133164,"54":0.08028165140453937,"55":0.02102466509502809,"56":-0.0765249691660997,"57":0.1242929614234868,"58":-0.03566371403569403,"59":-0.1068197442628771,"60":-0.020645449607378234,"61":0.117693607639794,"62":0.12014613321654895,"63":-0.029874238962317563,"64":0.09059526460853395,"65":0.028295470342874322,"66":0.05909474244321904,"67":0.040509857518672934,"68":0.012574518517661335,"69":0.061173092596962894,"70":0.008282670946930384,"71":-0.024302321299796373,"72":0.04022116321329696,"73":0.02879354699991375,"74":0.046458230558960596,"75":0.012262589462738787,"76":0.05747325147803328,"77":-0.005144715013836698,"78":-0.02438680733720414,"79":0.1343850224314427,"80":0.015559341678467965,"81":-0.06488216679195322,"82":-0.08642720607057458,"83":-0.050887151228766976,"84":0.03426236980443189,"85":0.10295269317757887,"86":0.009327362762691936,"87":0.011416248476248973,"88":0.04247415738160838,"89":-0.025089133450297237,"90":0.008725791822612825,"91":0.01699818864132681,"92":0.00017788827249834264,"93":0.004705163044212542,"94":0.03316233921524256,"95":0.16405152018268915,"96":0.0770668437781754,"97":0.03895741705214947,"98":0.008454986802218933,"99":0.06785135477334081,"100":-0.01996790028677634,"101":0.05527008054682949,"102":0.14941623671785412,"103":-0.06255746395615906,"104":0.08564590158354063,"105":0.04207593240269462,"106":0.04572366737368566,"107":-0.02532447097492649,"108":0.0562380329277655,"109":0.012854761737914708,"110":0.084741028010442,"111":0.046839681712555446,"112":0.036093475216901705,"113":0.00609899342538234,"114":0.05195865408469456,"115":0.030975162252563734,"116":0.0636211859551304,"117":0.15620850112886964,"118":-0.03501425426856289,"119":0.11040121094415807,"120":0.060967226105675856,"121":0.003210133741389305,"122":0.006585154346616214,"123":-0.20180389423099931,"124":0.0033066497749776086,"125":0.020995066090071048,"126":0.0015295848398782688,"127":0.03293436549830893,"128":-0.08842636281579729,"129":-0.012091551184353216,"130":0.07086184076272713,"131":-0.0540361553097786,"132":-0.010931589258181674,"133":-0.04120090728070586,"134":0.0017440961334522116,"135":0.06020205487552915,"136":-0.08414712924794367,"137":0.005909640390585452,"138":0.023775945659252052,"139":0.10222635833318289,"140":-0.03806915602335151,"141":-0.04499991877030394,"142":-0.021938509246809724,"143":-0.04096033102515076,"144":-0.03271435727178874,"145":0.011179922259024566,"146":-0.011753618133732591,"147":-0.01613582773417817,"148":-0.0547026863155338,"149":0.008657800179518314,"150":0.03259477483197258,"151":-0.015372764521026263,"152":-0.09585680231976128,"153":0.0034732505512257103,"154":-0.0011134931236741797,"155":0.003961886264487842,"156":0.0031345944100144877,"157":0.02180575054512172,"158":0.09469827992836569,"159":-0.007224070854859134,"160":-0.014320821876949181,"161":0.13033474960841832,"162":-0.07429346259862102,"163":0.03145529673845142,"164":-0.030011790864407733,"165":-0.019832964441880298,"166":0.07545037688067444,"167":0.013569581589488598,"168":0.04004746536532581,"169":0.05741647708915638,"170":0.036308155762827116,"171":-0.05931269780703362,"172":-0.03292612990404242,"173":0.009362223610940865,"174":-0.08137052589425184,"175":0.014790836207325506,"176":-0.05271321672066693,"177":-0.034257056920279715,"178":0.07171606622388386,"179":0.08097946651194005,"180":0.02503359644978855,"181":-0.03494837456974161,"182":-0.06339791537047615,"183":0.05512750173849842,"184":0.05383204349645087,"185":-0.08607093119027935,"186":0.09569896842883074,"187":-0.10301394946569974,"188":0.14406994892667213,"189":-0.017571049991294604,"190":-0.042851238836729755,"191":-0.062200991181555206,"192":-0.03594372471163186,"193":-0.05692942706522945,"194":-0.03597572461716694}},{"sx":1,"sy":1,"depth":195,"w":{"0":-0.0389692570695728,"1":-0.00611764667843137,"2":-0.02293054524410347,"3":0.14527145602295122,"4":0.1039304994436762,"5":0.04495057354910354,"6":0.11701048595199087,"7":0.027605741525837876,"8":-0.019113796555967576,"9":0.05290778307496251,"10":0.19326378650243062,"11":0.01869777655242765,"12":-0.028117284062958936,"13":0.03167849864645197,"14":0.05825053004265259,"15":-0.009940675338273995,"16":0.06513273835723364,"17":-0.11340412213222127,"18":0.03754018131820861,"19":-0.012436424282427366,"20":0.12786783327396864,"21":0.03059163548606854,"22":-0.13817969334925426,"23":0.02532976182957043,"24":0.06134777728370089,"25":0.08226566998203085,"26":-0.00013414439581205218,"27":0.1664816942854691,"28":0.03257347903887258,"29":0.027077871886996622,"30":0.04306688145412999,"31":0.3388753187943238,"32":0.020249150900651425,"33":0.07908212921814357,"34":0.3882212915903343,"35":0.06125921238153872,"36":0.06901190874881795,"37":0.32511237316036873,"38":-0.0026799988093616257,"39":0.14247641066412198,"40":0.38396746507975327,"41":0.05759116664918358,"42":0.03859765544553091,"43":-0.04104784589847564,"44":0.07287251553683756,"45":0.0002605832954874918,"46":0.12768281001279957,"47":0.10139330843003036,"48":0.07868862192485183,"49":0.1115396126558579,"50":-0.17911355697364853,"51":0.11828119798106496,"52":-0.10010295619535886,"53":-0.028397262911989712,"54":-0.05015324036634913,"55":0.059095423695799905,"56":-0.022810821888445895,"57":0.006900728259503928,"58":-0.025467327209932913,"59":0.07423358992266967,"60":0.003816320487807713,"61":-0.10482765814974533,"62":0.056605339712621106,"63":0.008466295580064577,"64":-0.06389157611953805,"65":-0.0015580036929579025,"66":0.11693647686564174,"67":-0.0662158190790781,"68":-0.043103197314031276,"69":-0.010022843751957092,"70":0.02287903890909952,"71":0.04896677791874912,"72":0.02034072912372393,"73":0.016901073936590582,"74":0.07349373857500614,"75":-0.013414541743069866,"76":0.025611441752787765,"77":-0.04870451699800145,"78":0.021265106559321807,"79":0.1718886283690357,"80":0.04893786716573928,"81":-0.04228923408364866,"82":0.14063355393696722,"83":-0.10536922689775877,"84":0.00044557076343857994,"85":0.033352183104683866,"86":0.033592702681227236,"87":-0.03889888999507096,"88":-0.1133586365839188,"89":0.13561302364371391,"90":0.0045893951023848484,"91":0.009029790376474346,"92":-0.028585431542224263,"93":0.016912615387364865,"94":-0.027179210557848346,"95":-0.03633562000157039,"96":0.001130443862932842,"97":0.08315674333771245,"98":-0.006965576319923439,"99":-0.04474443402466114,"100":-0.06105028624815119,"101":-0.057406791097657305,"102":-0.054628792332208256,"103":-0.14764855466963478,"104":0.03980478942862867,"105":-0.02344493798461323,"106":0.08850966936991768,"107":0.034948165630506574,"108":0.02474716744151774,"109":-0.04686126602947279,"110":-0.158990491850764,"111":0.10592812388720123,"112":0.10302647607735065,"113":0.025573899616147852,"114":-0.02155946594492906,"115":-0.05623438847313837,"116":0.10941063804043341,"117":-0.030569229557294453,"118":-0.016363516272853672,"119":0.02750137788408344,"120":0.06335847781286767,"121":0.006966293785346787,"122":0.06124850099617298,"123":0.04327651945551727,"124":-0.11033422383330785,"125":0.05501570137227011,"126":-0.08557555479244147,"127":0.006771929387840101,"128":0.10906630825487681,"129":0.09286846055954226,"130":0.010579707554418642,"131":-0.007902863944101076,"132":0.14563928246581773,"133":0.03931290033489919,"134":0.11662504385842737,"135":0.026668794616703174,"136":0.03768384834096667,"137":-0.05541065167311048,"138":0.04607203232275949,"139":0.09314911417186945,"140":-0.00137203580344658,"141":-0.008602860697050893,"142":-0.014326784701376221,"143":-0.014130922588363485,"144":-0.028809120007679042,"145":0.05739815150334459,"146":0.00969706085248429,"147":0.0137531061598877,"148":-0.08586366239421024,"149":-0.035587029428090534,"150":0.13753822348632666,"151":0.16577865945348724,"152":0.013891569920789524,"153":-0.029869402794085117,"154":0.0607646697278998,"155":0.08744733322938994,"156":0.054675921478453605,"157":0.013989904726956714,"158":-0.035098463656368484,"159":0.08198731001023354,"160":-0.12129169318464943,"161":-0.0620821652321488,"162":-0.049529969839900406,"163":0.015398393422340093,"164":-0.06403293769494915,"165":0.13251215862850785,"166":-0.0014000186648074019,"167":-0.04271196680873886,"168":0.043387422970245386,"169":0.05588503126937073,"170":0.10766949653201344,"171":-0.07114984867255437,"172":0.04141931927624312,"173":-0.03189045561482532,"174":0.069177113005285,"175":-0.020478796721162387,"176":0.06064352425359798,"177":0.044577894756344064,"178":0.014859969840476626,"179":0.07285142407800409,"180":0.0326770264536375,"181":0.015988070255690517,"182":0.06272075733782384,"183":0.030694211291322483,"184":0.047612735960636955,"185":0.12692696420406266,"186":0.0036646049483372548,"187":-0.010483647130585408,"188":0.08192569373510177,"189":-0.04964891856657071,"190":-0.016773824957787956,"191":0.00027273688351213757,"192":-0.009381675537027637,"193":-0.003031213264836702,"194":-0.01061044637942986}}],"biases":{"sx":1,"sy":1,"depth":10,"w":{"0":0.09931226098012379,"1":0.09944557439788222,"2":0.09586610510021301,"3":0.09461722580153306,"4":0.10653959102895813,"5":0.09693959674639228,"6":0.0952613314537584,"7":0.09839434972747588,"8":0.0943037462141732,"9":0.09544866110707537}}},{"out_depth":10,"out_sx":1,"out_sy":1,"layer_type":"relu"},{"out_depth":5,"out_sx":1,"out_sy":1,"layer_type":"fc","num_inputs":10,"l1_decay_mul":0,"l2_decay_mul":1,"filters":[{"sx":1,"sy":1,"depth":10,"w":{"0":0.5490059839076701,"1":-0.3584044794476337,"2":0.2656864896025936,"3":-0.15354734272856058,"4":-0.20727692279364576,"5":0.3472032673150751,"6":-0.4988904967698694,"7":-0.151835585733628,"8":0.5009203674028644,"9":0.2739420856361354}},{"sx":1,"sy":1,"depth":10,"w":{"0":-0.05301414659324534,"1":-0.4608004801074695,"2":-0.12967297872477532,"3":-0.2167283615014011,"4":-0.032155589470204124,"5":0.24919839650241157,"6":-0.4071718851375266,"7":-0.6029117114904464,"8":0.6814529806007176,"9":0.3417490329061328}},{"sx":1,"sy":1,"depth":10,"w":{"0":0.5457083847920992,"1":0.310941150072303,"2":-0.18377631177456694,"3":0.42355843429119133,"4":-0.2370680864520422,"5":0.02780398762609874,"6":0.15628874569883042,"7":-0.17307708909549402,"8":0.18650939682443304,"9":0.2354026208914903}},{"sx":1,"sy":1,"depth":10,"w":{"0":-0.06873880025991126,"1":0.11739433590173493,"2":-0.08161944410516626,"3":0.21818344985373114,"4":-0.1654918077683367,"5":-0.2708391067641411,"6":0.00640833900074168,"7":0.019591493693436563,"8":0.3981498863231782,"9":0.5032144390431333}},{"sx":1,"sy":1,"depth":10,"w":{"0":0.49160634195408914,"1":-0.03892020784179162,"2":0.1910526275329928,"3":-0.16555335714096162,"4":-0.12904618618660685,"5":0.08755344469678612,"6":0.7087932099914741,"7":0.08370844839984727,"8":0.12576761430782482,"9":0.38821517966790076}}],"biases":{"sx":1,"sy":1,"depth":5,"w":{"0":-0.03143082308888227,"1":0.012168011039129433,"2":-0.05864157238854988,"3":0.014642964383994183,"4":-0.020713419897078172}}},{"out_depth":5,"out_sx":1,"out_sy":1,"layer_type":"regression","num_inputs":5}]});
}